{"size": [32, 4, 4], "numNeuron": [4, 4, 2], "weight": [[[-0.17063317, -0.35102186, 0.2641979, 0.11950853, -0.2036087, 0.24133986, -0.9699034, 0.057115924, -0.23197426, -0.48523787, -0.028183857, 0.047954947, 0.03829685, 0.42669094, 0.017009268, 0.0015785214, 0.27325246, 0.05651979, -0.044931345, 0.018087814, -0.6796668, 0.19981936, 0.20514071, 0.04129855, -0.7004094, 0.18389866, 0.33194992, -0.76568687, -0.91476595, 0.3446739, 0.08258104, -0.74411815], [-0.010913518, 0.23595326, -0.38365084, -0.035719246, 0.11024074, 0.03041612, -0.69999933, 0.098003775, 0.6235232, -0.28881782, -0.9759659, -0.7698985, -0.14309423, 0.5361135, -0.012601439, 0.0012985275, 0.3228181, -0.13874008, -0.15193196, -0.22142717, -0.09147133, -0.06642381, -0.2735284, 0.17305385, 0.4924809, 0.044722825, -0.31560385, -0.031145563, 0.20594427, 0.094084986, 0.11312827, -0.6716546], [-0.15002258, -0.39556193, 0.38350397, 0.092952, -0.22664665, 0.9770461, -0.29327807, 0.1614644, 0.08597663, -0.4630609, -0.16814682, 0.060465045, -0.47913188, -0.25419104, 0.022867037, -0.010993009, -0.3711051, -0.1132046, 0.124985345, -0.12485943, 0.044277444, 0.5936224, -0.20366366, 0.11087639, -0.32956818, -0.06470422, -0.12336614, -0.16725841, 0.07023832, 0.384969, 0.0665865, -0.21174529], [0.10200674, -0.36445767, 0.36566046, 0.03528555, 0.15680669, -0.17337008, 0.12475399, 0.0001555425, 0.10814894, -1.212475, -0.10083826, -0.31699306, 0.016167108, -0.68283397, -0.045386177, -0.11235526, -0.29631644, -0.014360925, -0.39203814, -0.6781803, -0.7217316, 0.07053649, 0.1781781, 0.16162255, 0.67973727, 0.25830585, 0.31869704, 0.27993512, 0.050587382, -0.2919362, 0.31770003, -0.28411913]], [[0.008629559, -0.65490603, 0.10326406, -0.45333374], [0.791947, 0.8901036, -0.5900819, -0.20952593], [0.67778164, 0.7137599, -0.6196432, -0.36079252], [-0.12937325, -0.015610272, 0.33006677, 0.4534986]], [[0.052669056, -0.8811775, 0.08668838, 0.7546346], [-1.0212246, -0.18629201, -0.8259841, 0.36984766]]], "bias": [[0.5672095, 0.67229223, -0.0037996657, -0.16224709], [-0.32772303, -0.018969698, 0.042657714, 0.5016343], [0.38614705, 0.6399381]]}