{"size": [13, 4, 4], "numNeuron": [4, 4, 2], "weight": [[[-1.0668983, 0.77628905, 0.14643778, -0.0044665067, -0.0039738715, -19.109972, -10.949525, -0.53333545, 0.1812759, -5.489744, -5.9589787, -10.9653015, -12.0841], [1.1753685, -0.22892733, 0.10832103, -0.004009335, 4.6702575e-05, -33.610703, -17.590399, -0.005893515, 0.38995636, 3.2995532, 0.57512736, -0.3547768, 10.055154], [-2.3654978, 0.7388698, 0.015176744, -0.07434162, -0.0021964894, -21.100422, -10.27156, 0.012836773, -0.091327414, -4.7972565, 14.778316, -8.256048, -5.9675584], [0.029145835, -0.45090762, 0.1392224, 0.025093414, -0.09122079, -6.4074965, -4.021833, 0.02276996, 0.29823563, 1.4985642, -17.6837, 1.7925425, -1.0037979]], [[0.08465427, 0.08163342, 0.46040365, -0.1589395], [0.11109077, -2.6332345, 0.17994562, -0.15165514], [-0.0017020106, -0.2453466, -0.15414071, -0.08096254], [-0.1657152, -0.70249796, 0.01751577, -0.35111746]], [[-0.4676044, -0.4387312, 0.33383417, 0.534775], [0.044947527, -0.13812393, 0.30095983, -0.3252034]]], "bias": [[-0.6152852, 1.2225462, 6.707199, 14.707674], [-1.0040873, -4.5843663, 0.0, -0.2507539], [0.0, -0.09771533]]}