{"size": [13, 8], "numNeuron": [8, 1], "weight": [[[-0.65909934, -0.372154, -0.04331626, -0.61444354, -0.04327644, -0.453935, -0.0741488, -0.7488349, 0.05572682, -0.10251544, -0.43962798, -0.6184878, -0.365209], [-0.0022408245, -0.6181507, 0.44031563, 0.31903774, 0.13153656, 0.26896387, -0.52853817, -0.46626207, -0.19678038, 0.48138678, -0.5019916, 0.4005009, -0.24790439], [-0.08602889, -0.5103677, 0.030316493, 0.37007698, -0.01815813, -0.5830102, -0.37309822, 0.5120818, 0.072987646, -0.24471924, 0.7971913, 1.1113701, -0.12069351], [-0.63126224, 0.15010205, 0.19521946, -0.42726928, -0.5775982, -0.7337251, -0.15615363, -0.6015999, 0.01210949, -0.5234928, -0.65519035, -0.3211326, 0.3052739], [-0.1548634, 0.25689197, -0.13020048, 0.012371468, -0.36433962, 0.09191974, 0.47851858, 0.30921623, -0.46632317, -0.05712079, 0.13307495, -0.25695634, -0.14924814], [0.236886, 0.47384235, -0.011424261, 0.49054345, -0.29866344, -0.07685187, 0.17610092, 0.0062811133, 0.01599483, 0.10972473, -0.10298355, -0.44853756, -0.28489274], [0.5231553, -0.31584197, -0.43137527, -0.07202917, 0.27282858, -0.3374153, -0.2431931, -0.03565483, -0.45243788, -0.03637266, 0.56531924, 0.101484284, -0.41732997], [-0.12707411, -0.26599458, -0.49818, -0.30132464, 0.3542032, -0.44862813, 0.13666187, -0.261557, -0.47461435, 0.34908235, 0.46408775, 0.5312944, -0.393006]], [[0.3462532, -0.5683264, -0.46506423, -0.12232619, 0.6392527, 0.31742793, 0.76165235, -0.34799463]]], "bias": [[-0.39843267, -0.2471983, 0.6069068, -0.13759314, -0.06338313, -0.53733146, 0.021872481, -4.1777233e-07], [-0.559109]]}